1.673651401761664104e-01 4.536386700586722553e-02 6.519190522939999344e-02 -1.675439615061604173e-02 -2.234465005663746270e-02 -1.239706117241120287e-01 -7.496331589583661581e-02 2.102489396118394915e-01 -7.429782238085390345e-02 -1.357928035982199355e-01 1.551766485350009328e-01 7.989051306112267270e-02 1.141621875402082931e-01 3.223622826531687829e-02 -2.514877724018565672e-02 -5.543087110235730627e-03 3.840114414657709585e-03 -7.116941438145228671e-02 -1.028355382901632725e-01 6.884407084481541927e-02 6.073509665990307893e-02 -2.285403226988615838e-02 7.254566017853655846e-02 -1.695456451111401197e-01 6.963022579765847098e-02 -1.773283114731989407e-01 4.996386317499146995e-02 -6.370205619627500315e-02 6.975614569225775663e-02 8.967553833892137616e-02 -8.351895329194435058e-02 -2.516865111358607479e-02 -5.815626781896390818e-02 4.332739992449852889e-02 4.276807061838063667e-02 2.969200404159546940e-03 -1.397000791932334618e-02 2.460717346497830194e-02 -6.385452383655604476e-03 -2.961978614616449235e-02 1.543815324027097147e-01 -1.032085457271815915e-01 -1.257118239863903031e-01 1.541335238145803699e-01 -1.662939074594523836e-01 -2.693136684096525055e-02 -3.860512542721943052e-02 1.845730854827666925e-02 -7.525266305445667270e-02 3.392781475508498124e-02 8.526219064737461384e-02 9.619283811214823787e-02 -3.355442228174097125e-02 7.114303514294305353e-02 -7.371740201841421591e-02 1.563338988195930035e-01 3.350992608160244246e-02 1.015003161852458674e-01 7.182079672484012467e-02 1.177517234833857090e-01 -6.975804050536293932e-02 8.778277422225007343e-02 2.250955999118147699e-01 1.026032216780925904e-01 -3.995575571343431415e-02 -1.251101254515028793e-01 6.290573822718302510e-02 -9.604633345937871672e-03 7.407353635024820082e-02 4.815177087910267606e-02 -4.867015587948479716e-02 -2.074557368072525373e-02 2.369714559144787264e-02 1.052654079056121635e-02 -8.544414275483133703e-02 4.575987788575856807e-02 7.585337008735350273e-03 1.134453504897706688e-01 1.065869042095085456e-01 1.352871384038351402e-02 1.038496000764355526e-01 -3.735401761119644393e-02 6.393138258282177189e-02 -1.268350830342549196e-01 -2.250301214416934939e-02 -4.796134835064629065e-02 9.378224696722051168e-02 1.019646044873465246e-01 8.283508959063548560e-02 6.514368597965923546e-02 9.994957502469502264e-02 -6.640485726110859077e-02 6.962698040854126136e-02 7.651401103751190313e-02 -1.289798600384109706e-01 1.190166221746919231e-02 -6.743788436708426925e-03 -1.201085936918714070e-01 -2.535094739625462501e-02 8.705395998879473379e-03 -1.201911060137702582e-02 -1.100206698208333334e-01 -5.538617909077301477e-02 1.095520791777161163e-01 -9.941224592777045399e-02 -1.127287815526037129e-01 -1.383743534282838063e-02 1.574916629490785702e-02 3.580114745017912159e-02 9.920224876759488331e-02 -1.173971830116072590e-01 7.055283427384826181e-03 -1.200268420636018962e-01 1.065744847157434755e-01 2.071159202735592050e-02 -1.235970059650420005e-01 9.211583194903745497e-02 8.303332857819412799e-03 -8.885064161668758398e-02 -1.275136785167817477e-01 -1.148268218525045530e-03 -2.735536736230085794e-02 1.054747378036989675e-01 -5.511481180212214614e-02 1.431779207836298695e-01 2.261091214562129248e-01 -6.075980465873970400e-03 -8.282660700916398555e-02
